## LambdaMART
## No. of trees = 1000
## No. of leaves = 10
## No. of threshold candidates = 256
## Learning rate = 0.1
## Stop early = 100

<ensemble>
	<tree id="1" weight="0.1">
		<split>
			<feature> 3 </feature>
			<threshold> 571.0 </threshold>
			<split pos="left">
				<feature> 2 </feature>
				<threshold> 0.0 </threshold>
				<split pos="left">
					<output> -1.9816375970840454 </output>
				</split>
				<split pos="right">
					<feature> 5 </feature>
					<threshold> 1.0 </threshold>
					<split pos="left">
						<output> -0.7524943351745605 </output>
					</split>
					<split pos="right">
						<feature> 4 </feature>
						<threshold> 20.0 </threshold>
						<split pos="left">
							<output> -0.16279582679271698 </output>
						</split>
						<split pos="right">
							<feature> 2 </feature>
							<threshold> 4.0 </threshold>
							<split pos="left">
								<feature> 5 </feature>
								<threshold> 5.0 </threshold>
								<split pos="left">
									<feature> 5 </feature>
									<threshold> 4.0 </threshold>
									<split pos="left">
										<output> 1.361043930053711 </output>
									</split>
									<split pos="right">
										<output> 1.606144905090332 </output>
									</split>
								</split>
								<split pos="right">
									<output> -2.0 </output>
								</split>
							</split>
							<split pos="right">
								<output> 1.1990796327590942 </output>
							</split>
						</split>
					</split>
				</split>
			</split>
			<split pos="right">
				<feature> 4 </feature>
				<threshold> 151.0 </threshold>
				<split pos="left">
					<feature> 5 </feature>
					<threshold> 1.0 </threshold>
					<split pos="left">
						<output> 0.3637283146381378 </output>
					</split>
					<split pos="right">
						<output> 1.737618327140808 </output>
					</split>
				</split>
				<split pos="right">
					<output> 0.6413396000862122 </output>
				</split>
			</split>
		</split>
	</tree>
	<tree id="2" weight="0.1">
		<split>
			<feature> 5 </feature>
			<threshold> 1.0 </threshold>
			<split pos="left">
				<output> -1.4685499668121338 </output>
			</split>
			<split pos="right">
				<feature> 4 </feature>
				<threshold> 27.0 </threshold>
				<split pos="left">
					<output> -0.2927280068397522 </output>
				</split>
				<split pos="right">
					<feature> 10 </feature>
					<threshold> 0.0 </threshold>
					<split pos="left">
						<feature> 15 </feature>
						<threshold> 0.0 </threshold>
						<split pos="left">
							<feature> 3 </feature>
							<threshold> 571.0 </threshold>
							<split pos="left">
								<feature> 1 </feature>
								<threshold> 20.0 </threshold>
								<split pos="left">
									<output> 1.1742243766784668 </output>
								</split>
								<split pos="right">
									<output> 1.2158966064453125 </output>
								</split>
							</split>
							<split pos="right">
								<feature> 3 </feature>
								<threshold> 733.0 </threshold>
								<split pos="left">
									<feature> 8 </feature>
									<threshold> 0.0 </threshold>
									<split pos="left">
										<output> 1.7497608661651611 </output>
									</split>
									<split pos="right">
										<output> 1.5405501127243042 </output>
									</split>
								</split>
								<split pos="right">
									<output> 0.7730563879013062 </output>
								</split>
							</split>
						</split>
						<split pos="right">
							<feature> 5 </feature>
							<threshold> 10.0 </threshold>
							<split pos="left">
								<output> 1.4407155513763428 </output>
							</split>
							<split pos="right">
								<output> 1.6809866428375244 </output>
							</split>
						</split>
					</split>
					<split pos="right">
						<output> 1.7310501337051392 </output>
					</split>
				</split>
			</split>
		</split>
	</tree>
	<tree id="3" weight="0.1">
		<split>
			<feature> 4 </feature>
			<threshold> 83.0 </threshold>
			<split pos="left">
				<feature> 4 </feature>
				<threshold> 27.0 </threshold>
				<split pos="left">
					<output> -1.373467206954956 </output>
				</split>
				<split pos="right">
					<output> 0.5499354600906372 </output>
				</split>
			</split>
			<split pos="right">
				<feature> 5 </feature>
				<threshold> 10.0 </threshold>
				<split pos="left">
					<feature> 5 </feature>
					<threshold> 1.0 </threshold>
					<split pos="left">
						<output> -0.8278541564941406 </output>
					</split>
					<split pos="right">
						<feature> 10 </feature>
						<threshold> 0.0 </threshold>
						<split pos="left">
							<feature> 4 </feature>
							<threshold> 104.0 </threshold>
							<split pos="left">
								<feature> 3 </feature>
								<threshold> 192.0 </threshold>
								<split pos="left">
									<output> 1.3578920364379883 </output>
								</split>
								<split pos="right">
									<output> 1.3801507949829102 </output>
								</split>
							</split>
							<split pos="right">
								<output> 1.1944899559020996 </output>
							</split>
						</split>
						<split pos="right">
							<output> 1.4305773973464966 </output>
						</split>
					</split>
				</split>
				<split pos="right">
					<feature> 10 </feature>
					<threshold> 0.0 </threshold>
					<split pos="left">
						<feature> 15 </feature>
						<threshold> 0.0 </threshold>
						<split pos="left">
							<output> 1.3499869108200073 </output>
						</split>
						<split pos="right">
							<output> 1.542736291885376 </output>
						</split>
					</split>
					<split pos="right">
						<output> 1.5860496759414673 </output>
					</split>
				</split>
			</split>
		</split>
	</tree>
	<tree id="4" weight="0.1">
		<split>
			<feature> 4 </feature>
			<threshold> 83.0 </threshold>
			<split pos="left">
				<output> -1.1666336059570312 </output>
			</split>
			<split pos="right">
				<feature> 5 </feature>
				<threshold> 10.0 </threshold>
				<split pos="left">
					<feature> 5 </feature>
					<threshold> 1.0 </threshold>
					<split pos="left">
						<output> -0.9436731338500977 </output>
					</split>
					<split pos="right">
						<feature> 10 </feature>
						<threshold> 0.0 </threshold>
						<split pos="left">
							<feature> 4 </feature>
							<threshold> 104.0 </threshold>
							<split pos="left">
								<feature> 3 </feature>
								<threshold> 192.0 </threshold>
								<split pos="left">
									<output> 1.0695993900299072 </output>
								</split>
								<split pos="right">
									<output> 1.2348970174789429 </output>
								</split>
							</split>
							<split pos="right">
								<output> 1.1627352237701416 </output>
							</split>
						</split>
						<split pos="right">
							<output> 1.2945536375045776 </output>
						</split>
					</split>
				</split>
				<split pos="right">
					<feature> 10 </feature>
					<threshold> 0.0 </threshold>
					<split pos="left">
						<feature> 15 </feature>
						<threshold> 0.0 </threshold>
						<split pos="left">
							<output> 1.2858777046203613 </output>
						</split>
						<split pos="right">
							<feature> 3 </feature>
							<threshold> 187.0 </threshold>
							<split pos="left">
								<output> 1.362190842628479 </output>
							</split>
							<split pos="right">
								<output> 1.428466558456421 </output>
							</split>
						</split>
					</split>
					<split pos="right">
						<output> 1.4433966875076294 </output>
					</split>
				</split>
			</split>
		</split>
	</tree>
	<tree id="5" weight="0.1">
		<split>
			<feature> 4 </feature>
			<threshold> 83.0 </threshold>
			<split pos="left">
				<output> -1.0746920108795166 </output>
			</split>
			<split pos="right">
				<feature> 5 </feature>
				<threshold> 10.0 </threshold>
				<split pos="left">
					<feature> 5 </feature>
					<threshold> 1.0 </threshold>
					<split pos="left">
						<output> -0.876340925693512 </output>
					</split>
					<split pos="right">
						<feature> 10 </feature>
						<threshold> 0.0 </threshold>
						<split pos="left">
							<feature> 4 </feature>
							<threshold> 104.0 </threshold>
							<split pos="left">
								<feature> 3 </feature>
								<threshold> 192.0 </threshold>
								<split pos="left">
									<output> 0.9578857421875 </output>
								</split>
								<split pos="right">
									<output> 1.1166455745697021 </output>
								</split>
							</split>
							<split pos="right">
								<output> 1.0446511507034302 </output>
							</split>
						</split>
						<split pos="right">
							<output> 1.1754653453826904 </output>
						</split>
					</split>
				</split>
				<split pos="right">
					<feature> 3 </feature>
					<threshold> 212.0 </threshold>
					<split pos="left">
						<output> 1.194020390510559 </output>
					</split>
					<split pos="right">
						<feature> 15 </feature>
						<threshold> 0.0 </threshold>
						<split pos="left">
							<output> 1.2976189851760864 </output>
						</split>
						<split pos="right">
							<feature> 7 </feature>
							<threshold> 402.26172 </threshold>
							<split pos="left">
								<output> 1.3098505735397339 </output>
							</split>
							<split pos="right">
								<output> 1.3214231729507446 </output>
							</split>
						</split>
					</split>
				</split>
			</split>
		</split>
	</tree>
	<tree id="6" weight="0.1">
		<split>
			<feature> 4 </feature>
			<threshold> 99.0 </threshold>
			<split pos="left">
				<output> -0.960823118686676 </output>
			</split>
			<split pos="right">
				<feature> 5 </feature>
				<threshold> 10.0 </threshold>
				<split pos="left">
					<feature> 5 </feature>
					<threshold> 1.0 </threshold>
					<split pos="left">
						<output> -0.7205253839492798 </output>
					</split>
					<split pos="right">
						<feature> 10 </feature>
						<threshold> 0.0 </threshold>
						<split pos="left">
							<feature> 13 </feature>
							<threshold> 0.0 </threshold>
							<split pos="left">
								<feature> 8 </feature>
								<threshold> 5323.914 </threshold>
								<split pos="left">
									<feature> 4 </feature>
									<threshold> 104.0 </threshold>
									<split pos="left">
										<output> 1.0071532726287842 </output>
									</split>
									<split pos="right">
										<output> 0.8822275996208191 </output>
									</split>
								</split>
								<split pos="right">
									<output> 1.2724006175994873 </output>
								</split>
							</split>
							<split pos="right">
								<output> 1.1255959272384644 </output>
							</split>
						</split>
						<split pos="right">
							<output> 1.0806792974472046 </output>
						</split>
					</split>
				</split>
				<split pos="right">
					<feature> 3 </feature>
					<threshold> 212.0 </threshold>
					<split pos="left">
						<output> 1.109601378440857 </output>
					</split>
					<split pos="right">
						<feature> 7 </feature>
						<threshold> 5618.664 </threshold>
						<split pos="left">
							<output> 1.2511128187179565 </output>
						</split>
						<split pos="right">
							<output> 1.1381185054779053 </output>
						</split>
					</split>
				</split>
			</split>
		</split>
	</tree>
	<tree id="7" weight="0.1">
		<split>
			<feature> 4 </feature>
			<threshold> 99.0 </threshold>
			<split pos="left">
				<output> -0.9246553182601929 </output>
			</split>
			<split pos="right">
				<feature> 5 </feature>
				<threshold> 10.0 </threshold>
				<split pos="left">
					<feature> 5 </feature>
					<threshold> 1.0 </threshold>
					<split pos="left">
						<output> -0.6798436045646667 </output>
					</split>
					<split pos="right">
						<feature> 4 </feature>
						<threshold> 104.0 </threshold>
						<split pos="left">
							<output> 0.8745706081390381 </output>
						</split>
						<split pos="right">
							<feature> 13 </feature>
							<threshold> 0.0 </threshold>
							<split pos="left">
								<feature> 10 </feature>
								<threshold> 0.0 </threshold>
								<split pos="left">
									<output> 0.8080142736434937 </output>
								</split>
								<split pos="right">
									<output> 1.00046968460083 </output>
								</split>
							</split>
							<split pos="right">
								<output> 1.019067406654358 </output>
							</split>
						</split>
					</split>
				</split>
				<split pos="right">
					<feature> 3 </feature>
					<threshold> 212.0 </threshold>
					<split pos="left">
						<output> 1.0170484781265259 </output>
					</split>
					<split pos="right">
						<feature> 7 </feature>
						<threshold> 5618.664 </threshold>
						<split pos="left">
							<feature> 14 </feature>
							<threshold> 0.0 </threshold>
							<split pos="left">
								<output> 1.1722350120544434 </output>
							</split>
							<split pos="right">
								<output> 1.21831214427948 </output>
							</split>
						</split>
						<split pos="right">
							<output> 1.0616419315338135 </output>
						</split>
					</split>
				</split>
			</split>
		</split>
	</tree>
	<tree id="8" weight="0.1">
		<split>
			<feature> 4 </feature>
			<threshold> 99.0 </threshold>
			<split pos="left">
				<output> -0.8486945033073425 </output>
			</split>
			<split pos="right">
				<feature> 5 </feature>
				<threshold> 10.0 </threshold>
				<split pos="left">
					<feature> 5 </feature>
					<threshold> 1.0 </threshold>
					<split pos="left">
						<output> -0.6179838180541992 </output>
					</split>
					<split pos="right">
						<feature> 4 </feature>
						<threshold> 104.0 </threshold>
						<split pos="left">
							<output> 0.809558093547821 </output>
						</split>
						<split pos="right">
							<feature> 13 </feature>
							<threshold> 0.0 </threshold>
							<split pos="left">
								<feature> 10 </feature>
								<threshold> 0.0 </threshold>
								<split pos="left">
									<output> 0.722162127494812 </output>
								</split>
								<split pos="right">
									<output> 0.9148964285850525 </output>
								</split>
							</split>
							<split pos="right">
								<output> 0.9331229329109192 </output>
							</split>
						</split>
					</split>
				</split>
				<split pos="right">
					<feature> 3 </feature>
					<threshold> 212.0 </threshold>
					<split pos="left">
						<output> 0.9480540752410889 </output>
					</split>
					<split pos="right">
						<feature> 7 </feature>
						<threshold> 5618.664 </threshold>
						<split pos="left">
							<feature> 14 </feature>
							<threshold> 0.0 </threshold>
							<split pos="left">
								<output> 1.120025873184204 </output>
							</split>
							<split pos="right">
								<output> 1.165385365486145 </output>
							</split>
						</split>
						<split pos="right">
							<output> 0.9892273545265198 </output>
						</split>
					</split>
				</split>
			</split>
		</split>
	</tree>
	<tree id="9" weight="0.1">
		<split>
			<feature> 4 </feature>
			<threshold> 99.0 </threshold>
			<split pos="left">
				<output> -0.7790311574935913 </output>
			</split>
			<split pos="right">
				<feature> 5 </feature>
				<threshold> 10.0 </threshold>
				<split pos="left">
					<feature> 5 </feature>
					<threshold> 1.0 </threshold>
					<split pos="left">
						<output> -0.562676727771759 </output>
					</split>
					<split pos="right">
						<feature> 4 </feature>
						<threshold> 104.0 </threshold>
						<split pos="left">
							<output> 0.7226688265800476 </output>
						</split>
						<split pos="right">
							<feature> 13 </feature>
							<threshold> 0.0 </threshold>
							<split pos="left">
								<feature> 10 </feature>
								<threshold> 0.0 </threshold>
								<split pos="left">
									<output> 0.6440651416778564 </output>
								</split>
								<split pos="right">
									<output> 0.8510406017303467 </output>
								</split>
							</split>
							<split pos="right">
								<output> 0.8617372512817383 </output>
							</split>
						</split>
					</split>
				</split>
				<split pos="right">
					<feature> 3 </feature>
					<threshold> 212.0 </threshold>
					<split pos="left">
						<output> 0.885474681854248 </output>
					</split>
					<split pos="right">
						<feature> 7 </feature>
						<threshold> 5618.664 </threshold>
						<split pos="left">
							<feature> 14 </feature>
							<threshold> 0.0 </threshold>
							<split pos="left">
								<output> 1.079373836517334 </output>
							</split>
							<split pos="right">
								<output> 1.1156060695648193 </output>
							</split>
						</split>
						<split pos="right">
							<output> 0.931556224822998 </output>
						</split>
					</split>
				</split>
			</split>
		</split>
	</tree>
	<tree id="10" weight="0.1">
		<split>
			<feature> 3 </feature>
			<threshold> 201.0 </threshold>
			<split pos="left">
				<feature> 4 </feature>
				<threshold> 99.0 </threshold>
				<split pos="left">
					<output> -0.7172769904136658 </output>
				</split>
				<split pos="right">
					<feature> 5 </feature>
					<threshold> 5.0 </threshold>
					<split pos="left">
						<output> 0.24599257111549377 </output>
					</split>
					<split pos="right">
						<feature> 10 </feature>
						<threshold> 0.0 </threshold>
						<split pos="left">
							<output> 0.7872493863105774 </output>
						</split>
						<split pos="right">
							<output> 1.0263983011245728 </output>
						</split>
					</split>
				</split>
			</split>
			<split pos="right">
				<feature> 5 </feature>
				<threshold> 10.0 </threshold>
				<split pos="left">
					<output> 0.41000843048095703 </output>
				</split>
				<split pos="right">
					<feature> 7 </feature>
					<threshold> 5618.664 </threshold>
					<split pos="left">
						<feature> 1 </feature>
						<threshold> 1727.0 </threshold>
						<split pos="left">
							<output> 0.8205661773681641 </output>
						</split>
						<split pos="right">
							<feature> 1 </feature>
							<threshold> 3687.0 </threshold>
							<split pos="left">
								<feature> 5 </feature>
								<threshold> 12.0 </threshold>
								<split pos="left">
									<output> 0.9279350638389587 </output>
								</split>
								<split pos="right">
									<output> 1.0834161043167114 </output>
								</split>
							</split>
							<split pos="right">
								<output> 1.0530591011047363 </output>
							</split>
						</split>
					</split>
					<split pos="right">
						<output> 0.8859021067619324 </output>
					</split>
				</split>
			</split>
		</split>
	</tree>
	<tree id="11" weight="0.1">
		<split>
			<feature> 3 </feature>
			<threshold> 212.0 </threshold>
			<split pos="left">
				<feature> 4 </feature>
				<threshold> 99.0 </threshold>
				<split pos="left">
					<output> -0.7159455418586731 </output>
				</split>
				<split pos="right">
					<feature> 5 </feature>
					<threshold> 5.0 </threshold>
					<split pos="left">
						<output> 0.1989729404449463 </output>
					</split>
					<split pos="right">
						<feature> 8 </feature>
						<threshold> 7259.883 </threshold>
						<split pos="left">
							<feature> 10 </feature>
							<threshold> 0.0 </threshold>
							<split pos="left">
								<output> 0.7192181348800659 </output>
							</split>
							<split pos="right">
								<output> 0.9899707436561584 </output>
							</split>
						</split>
						<split pos="right">
							<output> 1.1423940658569336 </output>
						</split>
					</split>
				</split>
			</split>
			<split pos="right">
				<feature> 5 </feature>
				<threshold> 10.0 </threshold>
				<split pos="left">
					<feature> 5 </feature>
					<threshold> 2.0 </threshold>
					<split pos="left">
						<output> 0.10888385772705078 </output>
					</split>
					<split pos="right">
						<output> 0.7221062779426575 </output>
					</split>
				</split>
				<split pos="right">
					<feature> 7 </feature>
					<threshold> 5618.664 </threshold>
					<split pos="left">
						<feature> 4 </feature>
						<threshold> 817.0 </threshold>
						<split pos="left">
							<output> 0.9960880279541016 </output>
						</split>
						<split pos="right">
							<output> 1.0434324741363525 </output>
						</split>
					</split>
					<split pos="right">
						<output> 0.833936333656311 </output>
					</split>
				</split>
			</split>
		</split>
	</tree>
	<tree id="12" weight="0.1">
		<split>
			<feature> 3 </feature>
			<threshold> 212.0 </threshold>
			<split pos="left">
				<feature> 4 </feature>
				<threshold> 94.0 </threshold>
				<split pos="left">
					<output> -0.6855805516242981 </output>
				</split>
				<split pos="right">
					<feature> 5 </feature>
					<threshold> 5.0 </threshold>
					<split pos="left">
						<output> 0.18622490763664246 </output>
					</split>
					<split pos="right">
						<feature> 10 </feature>
						<threshold> 0.0 </threshold>
						<split pos="left">
							<feature> 8 </feature>
							<threshold> 7259.883 </threshold>
							<split pos="left">
								<output> 0.6457921266555786 </output>
							</split>
							<split pos="right">
								<output> 1.1194653511047363 </output>
							</split>
						</split>
						<split pos="right">
							<output> 0.9631339311599731 </output>
						</split>
					</split>
				</split>
			</split>
			<split pos="right">
				<feature> 5 </feature>
				<threshold> 10.0 </threshold>
				<split pos="left">
					<feature> 5 </feature>
					<threshold> 2.0 </threshold>
					<split pos="left">
						<output> 0.02297884039580822 </output>
					</split>
					<split pos="right">
						<output> 0.6399509906768799 </output>
					</split>
				</split>
				<split pos="right">
					<feature> 7 </feature>
					<threshold> 5618.664 </threshold>
					<split pos="left">
						<feature> 4 </feature>
						<threshold> 817.0 </threshold>
						<split pos="left">
							<output> 0.951750636100769 </output>
						</split>
						<split pos="right">
							<output> 1.0134049654006958 </output>
						</split>
					</split>
					<split pos="right">
						<output> 0.7662180066108704 </output>
					</split>
				</split>
			</split>
		</split>
	</tree>
	<tree id="13" weight="0.1">
		<split>
			<feature> 4 </feature>
			<threshold> 99.0 </threshold>
			<split pos="left">
				<output> -0.6034188270568848 </output>
			</split>
			<split pos="right">
				<feature> 5 </feature>
				<threshold> 10.0 </threshold>
				<split pos="left">
					<feature> 5 </feature>
					<threshold> 2.0 </threshold>
					<split pos="left">
						<feature> 5 </feature>
						<threshold> 0.0 </threshold>
						<split pos="left">
							<output> -0.7878044247627258 </output>
						</split>
						<split pos="right">
							<output> 0.460068941116333 </output>
						</split>
					</split>
					<split pos="right">
						<feature> 10 </feature>
						<threshold> 0.0 </threshold>
						<split pos="left">
							<feature> 13 </feature>
							<threshold> 0.0 </threshold>
							<split pos="left">
								<feature> 2 </feature>
								<threshold> 364.0 </threshold>
								<split pos="left">
									<feature> 8 </feature>
									<threshold> 5323.914 </threshold>
									<split pos="left">
										<output> 0.41856515407562256 </output>
									</split>
									<split pos="right">
										<output> 1.0663520097732544 </output>
									</split>
								</split>
								<split pos="right">
									<output> 0.8082095980644226 </output>
								</split>
							</split>
							<split pos="right">
								<output> 0.7135286927223206 </output>
							</split>
						</split>
						<split pos="right">
							<output> 0.8268726468086243 </output>
						</split>
					</split>
				</split>
				<split pos="right">
					<feature> 3 </feature>
					<threshold> 280.0 </threshold>
					<split pos="left">
						<output> 0.732675313949585 </output>
					</split>
					<split pos="right">
						<output> 0.9619980454444885 </output>
					</split>
				</split>
			</split>
		</split>
	</tree>
	<tree id="14" weight="0.1">
		<split>
			<feature> 4 </feature>
			<threshold> 99.0 </threshold>
			<split pos="left">
				<output> -0.6326382756233215 </output>
			</split>
			<split pos="right">
				<feature> 5 </feature>
				<threshold> 10.0 </threshold>
				<split pos="left">
					<feature> 5 </feature>
					<threshold> 0.0 </threshold>
					<split pos="left">
						<output> -0.7596713304519653 </output>
					</split>
					<split pos="right">
						<feature> 10 </feature>
						<threshold> 0.0 </threshold>
						<split pos="left">
							<feature> 13 </feature>
							<threshold> 0.0 </threshold>
							<split pos="left">
								<feature> 2 </feature>
								<threshold> 364.0 </threshold>
								<split pos="left">
									<feature> 3 </feature>
									<threshold> 571.0 </threshold>
									<split pos="left">
										<feature> 4 </feature>
										<threshold> 103.0 </threshold>
										<split pos="left">
											<output> 0.6361608505249023 </output>
										</split>
										<split pos="right">
											<output> 0.42353421449661255 </output>
										</split>
									</split>
									<split pos="right">
										<output> 0.8359047770500183 </output>
									</split>
								</split>
								<split pos="right">
									<output> 0.6387948989868164 </output>
								</split>
							</split>
							<split pos="right">
								<output> 0.7906336784362793 </output>
							</split>
						</split>
						<split pos="right">
							<output> 0.8406574726104736 </output>
						</split>
					</split>
				</split>
				<split pos="right">
					<feature> 3 </feature>
					<threshold> 280.0 </threshold>
					<split pos="left">
						<output> 0.685143232345581 </output>
					</split>
					<split pos="right">
						<output> 0.9314090609550476 </output>
					</split>
				</split>
			</split>
		</split>
	</tree>
	<tree id="15" weight="0.1">
		<split>
			<feature> 1 </feature>
			<threshold> 275.0 </threshold>
			<split pos="left">
				<output> -0.5222147703170776 </output>
			</split>
			<split pos="right">
				<feature> 5 </feature>
				<threshold> 10.0 </threshold>
				<split pos="left">
					<feature> 5 </feature>
					<threshold> 0.0 </threshold>
					<split pos="left">
						<output> -0.5769007802009583 </output>
					</split>
					<split pos="right">
						<feature> 10 </feature>
						<threshold> 0.0 </threshold>
						<split pos="left">
							<feature> 13 </feature>
							<threshold> 0.0 </threshold>
							<split pos="left">
								<feature> 3 </feature>
								<threshold> 894.0 </threshold>
								<split pos="left">
									<feature> 2 </feature>
									<threshold> 468.0 </threshold>
									<split pos="left">
										<feature> 3 </feature>
										<threshold> 571.0 </threshold>
										<split pos="left">
											<feature> 5 </feature>
											<threshold> 5.0 </threshold>
											<split pos="left">
												<output> 0.4716984033584595 </output>
											</split>
											<split pos="right">
												<output> 0.5478130578994751 </output>
											</split>
										</split>
										<split pos="right">
											<output> 0.6043641567230225 </output>
										</split>
									</split>
									<split pos="right">
										<output> 0.6942022442817688 </output>
									</split>
								</split>
								<split pos="right">
									<output> 1.195499062538147 </output>
								</split>
							</split>
							<split pos="right">
								<output> 0.7971436977386475 </output>
							</split>
						</split>
						<split pos="right">
							<output> 1.0170166492462158 </output>
						</split>
					</split>
				</split>
				<split pos="right">
					<output> 0.7916732430458069 </output>
				</split>
			</split>
		</split>
	</tree>
	<tree id="16" weight="0.1">
		<split>
			<feature> 1 </feature>
			<threshold> 309.0 </threshold>
			<split pos="left">
				<output> -0.5410875678062439 </output>
			</split>
			<split pos="right">
				<feature> 5 </feature>
				<threshold> 10.0 </threshold>
				<split pos="left">
					<feature> 5 </feature>
					<threshold> 0.0 </threshold>
					<split pos="left">
						<output> -0.5685520172119141 </output>
					</split>
					<split pos="right">
						<feature> 10 </feature>
						<threshold> 0.0 </threshold>
						<split pos="left">
							<feature> 3 </feature>
							<threshold> 894.0 </threshold>
							<split pos="left">
								<feature> 13 </feature>
								<threshold> 0.0 </threshold>
								<split pos="left">
									<feature> 2 </feature>
									<threshold> 468.0 </threshold>
									<split pos="left">
										<feature> 1 </feature>
										<threshold> 313.0 </threshold>
										<split pos="left">
											<output> 0.5390465259552002 </output>
										</split>
										<split pos="right">
											<feature> 5 </feature>
											<threshold> 6.0 </threshold>
											<split pos="left">
												<output> 0.42784345149993896 </output>
											</split>
											<split pos="right">
												<output> 0.5339891314506531 </output>
											</split>
										</split>
									</split>
									<split pos="right">
										<output> 0.6235567331314087 </output>
									</split>
								</split>
								<split pos="right">
									<output> 0.8181641101837158 </output>
								</split>
							</split>
							<split pos="right">
								<output> 1.0669952630996704 </output>
							</split>
						</split>
						<split pos="right">
							<output> 1.046369194984436 </output>
						</split>
					</split>
				</split>
				<split pos="right">
					<output> 0.7774662375450134 </output>
				</split>
			</split>
		</split>
	</tree>
	<tree id="17" weight="0.1">
		<split>
			<feature> 1 </feature>
			<threshold> 309.0 </threshold>
			<split pos="left">
				<output> -0.5588127970695496 </output>
			</split>
			<split pos="right">
				<feature> 5 </feature>
				<threshold> 10.0 </threshold>
				<split pos="left">
					<feature> 5 </feature>
					<threshold> 0.0 </threshold>
					<split pos="left">
						<output> -0.5353462100028992 </output>
					</split>
					<split pos="right">
						<feature> 10 </feature>
						<threshold> 0.0 </threshold>
						<split pos="left">
							<feature> 13 </feature>
							<threshold> 0.0 </threshold>
							<split pos="left">
								<feature> 3 </feature>
								<threshold> 894.0 </threshold>
								<split pos="left">
									<feature> 2 </feature>
									<threshold> 468.0 </threshold>
									<split pos="left">
										<feature> 5 </feature>
										<threshold> 6.0 </threshold>
										<split pos="left">
											<feature> 2 </feature>
											<threshold> 104.0 </threshold>
											<split pos="left">
												<output> 0.6128866672515869 </output>
											</split>
											<split pos="right">
												<output> 0.18031170964241028 </output>
											</split>
										</split>
										<split pos="right">
											<output> 0.48797982931137085 </output>
										</split>
									</split>
									<split pos="right">
										<output> 0.5419902205467224 </output>
									</split>
								</split>
								<split pos="right">
									<output> 0.9027956128120422 </output>
								</split>
							</split>
							<split pos="right">
								<output> 0.7456162571907043 </output>
							</split>
						</split>
						<split pos="right">
							<output> 0.9871841669082642 </output>
						</split>
					</split>
				</split>
				<split pos="right">
					<output> 0.7276103496551514 </output>
				</split>
			</split>
		</split>
	</tree>
	<tree id="18" weight="0.1">
		<split>
			<feature> 1 </feature>
			<threshold> 309.0 </threshold>
			<split pos="left">
				<output> -0.5205771327018738 </output>
			</split>
			<split pos="right">
				<feature> 5 </feature>
				<threshold> 10.0 </threshold>
				<split pos="left">
					<feature> 5 </feature>
					<threshold> 0.0 </threshold>
					<split pos="left">
						<output> -0.5041010975837708 </output>
					</split>
					<split pos="right">
						<feature> 10 </feature>
						<threshold> 0.0 </threshold>
						<split pos="left">
							<feature> 13 </feature>
							<threshold> 0.0 </threshold>
							<split pos="left">
								<feature> 3 </feature>
								<threshold> 894.0 </threshold>
								<split pos="left">
									<feature> 2 </feature>
									<threshold> 104.0 </threshold>
									<split pos="left">
										<feature> 5 </feature>
										<threshold> 1.0 </threshold>
										<split pos="left">
											<feature> 8 </feature>
											<threshold> 0.0 </threshold>
											<split pos="left">
												<output> 1.034541368484497 </output>
											</split>
											<split pos="right">
												<output> 1.0442365407943726 </output>
											</split>
										</split>
										<split pos="right">
											<output> 0.23748736083507538 </output>
										</split>
									</split>
									<split pos="right">
										<output> 0.29341092705726624 </output>
									</split>
								</split>
								<split pos="right">
									<output> 0.730821967124939 </output>
								</split>
							</split>
							<split pos="right">
								<output> 0.6778932809829712 </output>
							</split>
						</split>
						<split pos="right">
							<output> 0.9253735542297363 </output>
						</split>
					</split>
				</split>
				<split pos="right">
					<output> 0.6838294863700867 </output>
				</split>
			</split>
		</split>
	</tree>
	<tree id="19" weight="0.1">
		<split>
			<feature> 1 </feature>
			<threshold> 309.0 </threshold>
			<split pos="left">
				<output> -0.4663289785385132 </output>
			</split>
			<split pos="right">
				<feature> 5 </feature>
				<threshold> 10.0 </threshold>
				<split pos="left">
					<feature> 5 </feature>
					<threshold> 0.0 </threshold>
					<split pos="left">
						<output> -0.4643060564994812 </output>
					</split>
					<split pos="right">
						<feature> 10 </feature>
						<threshold> 0.0 </threshold>
						<split pos="left">
							<feature> 13 </feature>
							<threshold> 0.0 </threshold>
							<split pos="left">
								<feature> 3 </feature>
								<threshold> 894.0 </threshold>
								<split pos="left">
									<feature> 2 </feature>
									<threshold> 104.0 </threshold>
									<split pos="left">
										<feature> 5 </feature>
										<threshold> 1.0 </threshold>
										<split pos="left">
											<feature> 8 </feature>
											<threshold> 0.0 </threshold>
											<split pos="left">
												<output> 0.9440782070159912 </output>
											</split>
											<split pos="right">
												<output> 0.9633851647377014 </output>
											</split>
										</split>
										<split pos="right">
											<output> 0.1493489295244217 </output>
										</split>
									</split>
									<split pos="right">
										<output> 0.25554072856903076 </output>
									</split>
								</split>
								<split pos="right">
									<output> 0.6538676619529724 </output>
								</split>
							</split>
							<split pos="right">
								<output> 0.6059299111366272 </output>
							</split>
						</split>
						<split pos="right">
							<output> 0.8735628128051758 </output>
						</split>
					</split>
				</split>
				<split pos="right">
					<output> 0.6392945051193237 </output>
				</split>
			</split>
		</split>
	</tree>
	<tree id="20" weight="0.1">
		<split>
			<feature> 1 </feature>
			<threshold> 376.0 </threshold>
			<split pos="left">
				<output> -0.39177176356315613 </output>
			</split>
			<split pos="right">
				<feature> 5 </feature>
				<threshold> 10.0 </threshold>
				<split pos="left">
					<feature> 5 </feature>
					<threshold> 0.0 </threshold>
					<split pos="left">
						<output> -0.4624105989933014 </output>
					</split>
					<split pos="right">
						<feature> 1 </feature>
						<threshold> 399.0 </threshold>
						<split pos="left">
							<output> 0.9916422963142395 </output>
						</split>
						<split pos="right">
							<feature> 3 </feature>
							<threshold> 3.0 </threshold>
							<split pos="left">
								<output> 0.6033069491386414 </output>
							</split>
							<split pos="right">
								<feature> 3 </feature>
								<threshold> 894.0 </threshold>
								<split pos="left">
									<feature> 8 </feature>
									<threshold> 483.9922 </threshold>
									<split pos="left">
										<feature> 3 </feature>
										<threshold> 107.0 </threshold>
										<split pos="left">
											<feature> 2 </feature>
											<threshold> 104.0 </threshold>
											<split pos="left">
												<output> 0.5010007619857788 </output>
											</split>
											<split pos="right">
												<output> 0.23877544701099396 </output>
											</split>
										</split>
										<split pos="right">
											<output> 0.010360709391534328 </output>
										</split>
									</split>
									<split pos="right">
										<output> 0.8120001554489136 </output>
									</split>
								</split>
								<split pos="right">
									<output> 0.5585641860961914 </output>
								</split>
							</split>
						</split>
					</split>
				</split>
				<split pos="right">
					<output> 0.5991552472114563 </output>
				</split>
			</split>
		</split>
	</tree>
	<tree id="21" weight="0.1">
		<split>
			<feature> 1 </feature>
			<threshold> 376.0 </threshold>
			<split pos="left">
				<output> -0.3581421673297882 </output>
			</split>
			<split pos="right">
				<feature> 5 </feature>
				<threshold> 10.0 </threshold>
				<split pos="left">
					<feature> 1 </feature>
					<threshold> 399.0 </threshold>
					<split pos="left">
						<output> 0.9656810760498047 </output>
					</split>
					<split pos="right">
						<feature> 5 </feature>
						<threshold> 0.0 </threshold>
						<split pos="left">
							<output> -0.43864741921424866 </output>
						</split>
						<split pos="right">
							<feature> 3 </feature>
							<threshold> 3.0 </threshold>
							<split pos="left">
								<output> 0.4443678855895996 </output>
							</split>
							<split pos="right">
								<feature> 8 </feature>
								<threshold> 483.9922 </threshold>
								<split pos="left">
									<feature> 3 </feature>
									<threshold> 894.0 </threshold>
									<split pos="left">
										<feature> 7 </feature>
										<threshold> 1606.0469 </threshold>
										<split pos="left">
											<output> 0.04487438127398491 </output>
										</split>
										<split pos="right">
											<feature> 1 </feature>
											<threshold> 598.0 </threshold>
											<split pos="left">
												<output> 0.6444568037986755 </output>
											</split>
											<split pos="right">
												<output> 0.3115263879299164 </output>
											</split>
										</split>
									</split>
									<split pos="right">
										<output> 0.44742244482040405 </output>
									</split>
								</split>
								<split pos="right">
									<output> 0.7334278225898743 </output>
								</split>
							</split>
						</split>
					</split>
				</split>
				<split pos="right">
					<output> 0.5543528199195862 </output>
				</split>
			</split>
		</split>
	</tree>
	<tree id="22" weight="0.1">
		<split>
			<feature> 3 </feature>
			<threshold> 232.0 </threshold>
			<split pos="left">
				<feature> 5 </feature>
				<threshold> 0.0 </threshold>
				<split pos="left">
					<output> -0.9405151009559631 </output>
				</split>
				<split pos="right">
					<feature> 1 </feature>
					<threshold> 445.0 </threshold>
					<split pos="left">
						<output> 0.47691401839256287 </output>
					</split>
					<split pos="right">
						<feature> 10 </feature>
						<threshold> 0.0 </threshold>
						<split pos="left">
							<feature> 2 </feature>
							<threshold> 94.0 </threshold>
							<split pos="left">
								<feature> 1 </feature>
								<threshold> 598.0 </threshold>
								<split pos="left">
									<output> 0.5444366335868835 </output>
								</split>
								<split pos="right">
									<output> 0.2842661738395691 </output>
								</split>
							</split>
							<split pos="right">
								<output> 0.191254660487175 </output>
							</split>
						</split>
						<split pos="right">
							<output> 0.7150509357452393 </output>
						</split>
					</split>
				</split>
			</split>
			<split pos="right">
				<feature> 10 </feature>
				<threshold> 0.0 </threshold>
				<split pos="left">
					<output> 0.3637983202934265 </output>
				</split>
				<split pos="right">
					<feature> 8 </feature>
					<threshold> 0.0 </threshold>
					<split pos="left">
						<output> 1.377514362335205 </output>
					</split>
					<split pos="right">
						<feature> 5 </feature>
						<threshold> 0.0 </threshold>
						<split pos="left">
							<output> 1.2408833503723145 </output>
						</split>
						<split pos="right">
							<output> 0.899556577205658 </output>
						</split>
					</split>
				</split>
			</split>
		</split>
	</tree>
	<tree id="23" weight="0.1">
		<split>
			<feature> 3 </feature>
			<threshold> 232.0 </threshold>
			<split pos="left">
				<feature> 5 </feature>
				<threshold> 0.0 </threshold>
				<split pos="left">
					<output> -0.9118397235870361 </output>
				</split>
				<split pos="right">
					<feature> 1 </feature>
					<threshold> 462.0 </threshold>
					<split pos="left">
						<output> 0.4206785261631012 </output>
					</split>
					<split pos="right">
						<feature> 10 </feature>
						<threshold> 0.0 </threshold>
						<split pos="left">
							<feature> 2 </feature>
							<threshold> 94.0 </threshold>
							<split pos="left">
								<output> 0.4215891361236572 </output>
							</split>
							<split pos="right">
								<output> 0.18301697075366974 </output>
							</split>
						</split>
						<split pos="right">
							<output> 0.6757120490074158 </output>
						</split>
					</split>
				</split>
			</split>
			<split pos="right">
				<feature> 10 </feature>
				<threshold> 0.0 </threshold>
				<split pos="left">
					<output> 0.28490060567855835 </output>
				</split>
				<split pos="right">
					<feature> 8 </feature>
					<threshold> 0.0 </threshold>
					<split pos="left">
						<feature> 5 </feature>
						<threshold> 3.0 </threshold>
						<split pos="left">
							<output> 1.2778042554855347 </output>
						</split>
						<split pos="right">
							<output> -31.560152053833008 </output>
						</split>
					</split>
					<split pos="right">
						<feature> 5 </feature>
						<threshold> 0.0 </threshold>
						<split pos="left">
							<output> 1.097914457321167 </output>
						</split>
						<split pos="right">
							<output> 0.8464763760566711 </output>
						</split>
					</split>
				</split>
			</split>
		</split>
	</tree>
	<tree id="24" weight="0.1">
		<split>
			<feature> 3 </feature>
			<threshold> 232.0 </threshold>
			<split pos="left">
				<feature> 5 </feature>
				<threshold> 0.0 </threshold>
				<split pos="left">
					<output> -0.8577933311462402 </output>
				</split>
				<split pos="right">
					<feature> 1 </feature>
					<threshold> 462.0 </threshold>
					<split pos="left">
						<output> 0.40108296275138855 </output>
					</split>
					<split pos="right">
						<feature> 2 </feature>
						<threshold> 94.0 </threshold>
						<split pos="left">
							<feature> 1 </feature>
							<threshold> 598.0 </threshold>
							<split pos="left">
								<output> 0.5339136719703674 </output>
							</split>
							<split pos="right">
								<output> 0.22661884129047394 </output>
							</split>
						</split>
						<split pos="right">
							<output> 0.1236894428730011 </output>
						</split>
					</split>
				</split>
			</split>
			<split pos="right">
				<feature> 3 </feature>
				<threshold> 233.0 </threshold>
				<split pos="left">
					<feature> 8 </feature>
					<threshold> 0.0 </threshold>
					<split pos="left">
						<feature> 5 </feature>
						<threshold> 3.0 </threshold>
						<split pos="left">
							<output> 1.1888493299484253 </output>
						</split>
						<split pos="right">
							<output> 0.0 </output>
						</split>
					</split>
					<split pos="right">
						<feature> 5 </feature>
						<threshold> 0.0 </threshold>
						<split pos="left">
							<output> 0.9766037464141846 </output>
						</split>
						<split pos="right">
							<output> 0.790778636932373 </output>
						</split>
					</split>
				</split>
				<split pos="right">
					<output> 0.2606622874736786 </output>
				</split>
			</split>
		</split>
	</tree>
	<tree id="25" weight="0.1">
		<split>
			<feature> 3 </feature>
			<threshold> 232.0 </threshold>
			<split pos="left">
				<feature> 5 </feature>
				<threshold> 0.0 </threshold>
				<split pos="left">
					<output> -0.8089935183525085 </output>
				</split>
				<split pos="right">
					<feature> 7 </feature>
					<threshold> 1606.0469 </threshold>
					<split pos="left">
						<feature> 2 </feature>
						<threshold> 364.0 </threshold>
						<split pos="left">
							<output> 0.163897305727005 </output>
						</split>
						<split pos="right">
							<output> 0.42585161328315735 </output>
						</split>
					</split>
					<split pos="right">
						<feature> 10 </feature>
						<threshold> 0.0 </threshold>
						<split pos="left">
							<output> 0.46530503034591675 </output>
						</split>
						<split pos="right">
							<output> 1.1767526865005493 </output>
						</split>
					</split>
				</split>
			</split>
			<split pos="right">
				<feature> 5 </feature>
				<threshold> 20.0 </threshold>
				<split pos="left">
					<feature> 10 </feature>
					<threshold> 0.0 </threshold>
					<split pos="left">
						<output> 0.13333195447921753 </output>
					</split>
					<split pos="right">
						<feature> 8 </feature>
						<threshold> 0.0 </threshold>
						<split pos="left">
							<output> 1.1124093532562256 </output>
						</split>
						<split pos="right">
							<feature> 5 </feature>
							<threshold> 0.0 </threshold>
							<split pos="left">
								<output> 0.8705108761787415 </output>
							</split>
							<split pos="right">
								<output> 0.7379381656646729 </output>
							</split>
						</split>
					</split>
				</split>
				<split pos="right">
					<output> 0.9025261998176575 </output>
				</split>
			</split>
		</split>
	</tree>
	<tree id="26" weight="0.1">
		<split>
			<feature> 7 </feature>
			<threshold> 20866.61 </threshold>
			<split pos="left">
				<feature> 5 </feature>
				<threshold> 3.0 </threshold>
				<split pos="left">
					<feature> 5 </feature>
					<threshold> 0.0 </threshold>
					<split pos="left">
						<output> -0.7574945688247681 </output>
					</split>
					<split pos="right">
						<feature> 7 </feature>
						<threshold> 1606.0469 </threshold>
						<split pos="left">
							<feature> 3 </feature>
							<threshold> 571.0 </threshold>
							<split pos="left">
								<output> -0.06523057818412781 </output>
							</split>
							<split pos="right">
								<output> 0.36830630898475647 </output>
							</split>
						</split>
						<split pos="right">
							<feature> 10 </feature>
							<threshold> 0.0 </threshold>
							<split pos="left">
								<output> 0.38739269971847534 </output>
							</split>
							<split pos="right">
								<output> 1.0832687616348267 </output>
							</split>
						</split>
					</split>
				</split>
				<split pos="right">
					<feature> 4 </feature>
					<threshold> 668.0 </threshold>
					<split pos="left">
						<output> 0.3903854191303253 </output>
					</split>
					<split pos="right">
						<output> 0.40835654735565186 </output>
					</split>
				</split>
			</split>
			<split pos="right">
				<feature> 10 </feature>
				<threshold> 0.0 </threshold>
				<split pos="left">
					<output> 0.3871558904647827 </output>
				</split>
				<split pos="right">
					<feature> 8 </feature>
					<threshold> 0.0 </threshold>
					<split pos="left">
						<output> 1.047015905380249 </output>
					</split>
					<split pos="right">
						<output> 0.719428539276123 </output>
					</split>
				</split>
			</split>
		</split>
	</tree>
	<tree id="27" weight="0.1">
		<split>
			<feature> 7 </feature>
			<threshold> 20866.61 </threshold>
			<split pos="left">
				<feature> 5 </feature>
				<threshold> 4.0 </threshold>
				<split pos="left">
					<feature> 5 </feature>
					<threshold> 0.0 </threshold>
					<split pos="left">
						<output> -0.7141249179840088 </output>
					</split>
					<split pos="right">
						<feature> 7 </feature>
						<threshold> 1606.0469 </threshold>
						<split pos="left">
							<feature> 1 </feature>
							<threshold> 6315.0 </threshold>
							<split pos="left">
								<output> 0.0011611374793574214 </output>
							</split>
							<split pos="right">
								<output> 0.5646644234657288 </output>
							</split>
						</split>
						<split pos="right">
							<feature> 10 </feature>
							<threshold> 0.0 </threshold>
							<split pos="left">
								<feature> 5 </feature>
								<threshold> 1.0 </threshold>
								<split pos="left">
									<output> 0.5981773734092712 </output>
								</split>
								<split pos="right">
									<output> 0.040243905037641525 </output>
								</split>
							</split>
							<split pos="right">
								<output> 1.0058646202087402 </output>
							</split>
						</split>
					</split>
				</split>
				<split pos="right">
					<output> 0.37484654784202576 </output>
				</split>
			</split>
			<split pos="right">
				<feature> 10 </feature>
				<threshold> 0.0 </threshold>
				<split pos="left">
					<output> 0.31481704115867615 </output>
				</split>
				<split pos="right">
					<feature> 8 </feature>
					<threshold> 0.0 </threshold>
					<split pos="left">
						<output> 0.987376868724823 </output>
					</split>
					<split pos="right">
						<output> 0.6515092253684998 </output>
					</split>
				</split>
			</split>
		</split>
	</tree>
	<tree id="28" weight="0.1">
		<split>
			<feature> 7 </feature>
			<threshold> 20866.61 </threshold>
			<split pos="left">
				<feature> 5 </feature>
				<threshold> 3.0 </threshold>
				<split pos="left">
					<feature> 4 </feature>
					<threshold> 1861.0 </threshold>
					<split pos="left">
						<feature> 7 </feature>
						<threshold> 1606.0469 </threshold>
						<split pos="left">
							<output> -0.4331894516944885 </output>
						</split>
						<split pos="right">
							<feature> 5 </feature>
							<threshold> 0.0 </threshold>
							<split pos="left">
								<output> 0.037049610167741776 </output>
							</split>
							<split pos="right">
								<feature> 10 </feature>
								<threshold> 0.0 </threshold>
								<split pos="left">
									<output> 0.3131387531757355 </output>
								</split>
								<split pos="right">
									<output> 1.0407130718231201 </output>
								</split>
							</split>
						</split>
					</split>
					<split pos="right">
						<output> -1.2922426462173462 </output>
					</split>
				</split>
				<split pos="right">
					<feature> 4 </feature>
					<threshold> 668.0 </threshold>
					<split pos="left">
						<output> 0.33679619431495667 </output>
					</split>
					<split pos="right">
						<output> 0.33804112672805786 </output>
					</split>
				</split>
			</split>
			<split pos="right">
				<feature> 10 </feature>
				<threshold> 0.0 </threshold>
				<split pos="left">
					<output> 0.26022201776504517 </output>
				</split>
				<split pos="right">
					<feature> 8 </feature>
					<threshold> 0.0 </threshold>
					<split pos="left">
						<output> 0.9322560429573059 </output>
					</split>
					<split pos="right">
						<output> 0.5871285796165466 </output>
					</split>
				</split>
			</split>
		</split>
	</tree>
	<tree id="29" weight="0.1">
		<split>
			<feature> 3 </feature>
			<threshold> 232.0 </threshold>
			<split pos="left">
				<feature> 5 </feature>
				<threshold> 0.0 </threshold>
				<split pos="left">
					<output> -0.6789746880531311 </output>
				</split>
				<split pos="right">
					<feature> 7 </feature>
					<threshold> 803.52344 </threshold>
					<split pos="left">
						<output> 0.13863670825958252 </output>
					</split>
					<split pos="right">
						<feature> 10 </feature>
						<threshold> 0.0 </threshold>
						<split pos="left">
							<feature> 5 </feature>
							<threshold> 6.0 </threshold>
							<split pos="left">
								<feature> 3 </feature>
								<threshold> 212.0 </threshold>
								<split pos="left">
									<feature> 2 </feature>
									<threshold> 104.0 </threshold>
									<split pos="left">
										<output> 0.47961291670799255 </output>
									</split>
									<split pos="right">
										<output> -0.09335944056510925 </output>
									</split>
								</split>
								<split pos="right">
									<output> -0.7315673828125 </output>
								</split>
							</split>
							<split pos="right">
								<output> 0.33664456009864807 </output>
							</split>
						</split>
						<split pos="right">
							<output> 0.8405094742774963 </output>
						</split>
					</split>
				</split>
			</split>
			<split pos="right">
				<feature> 5 </feature>
				<threshold> 20.0 </threshold>
				<split pos="left">
					<feature> 3 </feature>
					<threshold> 233.0 </threshold>
					<split pos="left">
						<output> 0.6422961950302124 </output>
					</split>
					<split pos="right">
						<output> 0.0363834872841835 </output>
					</split>
				</split>
				<split pos="right">
					<output> 0.8537556529045105 </output>
				</split>
			</split>
		</split>
	</tree>
	<tree id="30" weight="0.1">
		<split>
			<feature> 5 </feature>
			<threshold> 3.0 </threshold>
			<split pos="left">
				<feature> 7 </feature>
				<threshold> 20866.61 </threshold>
				<split pos="left">
					<feature> 5 </feature>
					<threshold> 0.0 </threshold>
					<split pos="left">
						<output> -0.6124459505081177 </output>
					</split>
					<split pos="right">
						<feature> 3 </feature>
						<threshold> 894.0 </threshold>
						<split pos="left">
							<feature> 7 </feature>
							<threshold> 1606.0469 </threshold>
							<split pos="left">
								<output> -0.017128808423876762 </output>
							</split>
							<split pos="right">
								<feature> 10 </feature>
								<threshold> 0.0 </threshold>
								<split pos="left">
									<feature> 5 </feature>
									<threshold> 1.0 </threshold>
									<split pos="left">
										<output> 0.4693039357662201 </output>
									</split>
									<split pos="right">
										<output> -0.0801735669374466 </output>
									</split>
								</split>
								<split pos="right">
									<output> 0.9285327196121216 </output>
								</split>
							</split>
						</split>
						<split pos="right">
							<output> 0.3761276602745056 </output>
						</split>
					</split>
				</split>
				<split pos="right">
					<feature> 7 </feature>
					<threshold> 25280.488 </threshold>
					<split pos="left">
						<output> 0.6415830254554749 </output>
					</split>
					<split pos="right">
						<output> -0.26497772336006165 </output>
					</split>
				</split>
			</split>
			<split pos="right">
				<feature> 4 </feature>
				<threshold> 668.0 </threshold>
				<split pos="left">
					<output> 0.28805840015411377 </output>
				</split>
				<split pos="right">
					<output> 0.33278822898864746 </output>
				</split>
			</split>
		</split>
	</tree>
	<tree id="31" weight="0.1">
		<split>
			<feature> 5 </feature>
			<threshold> 4.0 </threshold>
			<split pos="left">
				<feature> 7 </feature>
				<threshold> 20866.61 </threshold>
				<split pos="left">
					<feature> 3 </feature>
					<threshold> 307.0 </threshold>
					<split pos="left">
						<feature> 3 </feature>
						<threshold> 262.0 </threshold>
						<split pos="left">
							<feature> 5 </feature>
							<threshold> 0.0 </threshold>
							<split pos="left">
								<output> -0.6091306209564209 </output>
							</split>
							<split pos="right">
								<feature> 2 </feature>
								<threshold> 396.0 </threshold>
								<split pos="left">
									<feature> 7 </feature>
									<threshold> 1606.0469 </threshold>
									<split pos="left">
										<output> 0.026846682652831078 </output>
									</split>
									<split pos="right">
										<output> 0.24815626442432404 </output>
									</split>
								</split>
								<split pos="right">
									<output> 0.4929163157939911 </output>
								</split>
							</split>
						</split>
						<split pos="right">
							<output> 0.5772876143455505 </output>
						</split>
					</split>
					<split pos="right">
						<output> -0.4774247705936432 </output>
					</split>
				</split>
				<split pos="right">
					<feature> 7 </feature>
					<threshold> 25280.488 </threshold>
					<split pos="left">
						<output> 0.5581564903259277 </output>
					</split>
					<split pos="right">
						<output> -0.17606784403324127 </output>
					</split>
				</split>
			</split>
			<split pos="right">
				<feature> 4 </feature>
				<threshold> 668.0 </threshold>
				<split pos="left">
					<output> 0.2600187361240387 </output>
				</split>
				<split pos="right">
					<output> 0.341810017824173 </output>
				</split>
			</split>
		</split>
	</tree>
	<tree id="32" weight="0.1">
		<split>
			<feature> 3 </feature>
			<threshold> 232.0 </threshold>
			<split pos="left">
				<feature> 5 </feature>
				<threshold> 2.0 </threshold>
				<split pos="left">
					<feature> 7 </feature>
					<threshold> 402.26172 </threshold>
					<split pos="left">
						<output> -0.5586233735084534 </output>
					</split>
					<split pos="right">
						<feature> 5 </feature>
						<threshold> 0.0 </threshold>
						<split pos="left">
							<output> -0.29873383045196533 </output>
						</split>
						<split pos="right">
							<feature> 4 </feature>
							<threshold> 259.0 </threshold>
							<split pos="left">
								<output> 0.46330979466438293 </output>
							</split>
							<split pos="right">
								<output> -0.13901939988136292 </output>
							</split>
						</split>
					</split>
				</split>
				<split pos="right">
					<feature> 2 </feature>
					<threshold> 226.0 </threshold>
					<split pos="left">
						<output> 0.24407468736171722 </output>
					</split>
					<split pos="right">
						<output> 0.26875293254852295 </output>
					</split>
				</split>
			</split>
			<split pos="right">
				<feature> 5 </feature>
				<threshold> 20.0 </threshold>
				<split pos="left">
					<feature> 5 </feature>
					<threshold> 12.0 </threshold>
					<split pos="left">
						<feature> 10 </feature>
						<threshold> 0.0 </threshold>
						<split pos="left">
							<output> -0.06001416593790054 </output>
						</split>
						<split pos="right">
							<output> 0.4567278325557709 </output>
						</split>
					</split>
					<split pos="right">
						<output> 0.44189587235450745 </output>
					</split>
				</split>
				<split pos="right">
					<output> 0.8069936037063599 </output>
				</split>
			</split>
		</split>
	</tree>
	<tree id="33" weight="0.1">
		<split>
			<feature> 5 </feature>
			<threshold> 4.0 </threshold>
			<split pos="left">
				<feature> 7 </feature>
				<threshold> 2007.3086 </threshold>
				<split pos="left">
					<feature> 4 </feature>
					<threshold> 1660.0 </threshold>
					<split pos="left">
						<feature> 2 </feature>
						<threshold> 104.0 </threshold>
						<split pos="left">
							<feature> 5 </feature>
							<threshold> 0.0 </threshold>
							<split pos="left">
								<output> -0.6339907646179199 </output>
							</split>
							<split pos="right">
								<feature> 1 </feature>
								<threshold> 445.0 </threshold>
								<split pos="left">
									<output> 0.04658620059490204 </output>
								</split>
								<split pos="right">
									<feature> 5 </feature>
									<threshold> 1.0 </threshold>
									<split pos="left">
										<output> 0.6866153478622437 </output>
									</split>
									<split pos="right">
										<output> -0.5242195129394531 </output>
									</split>
								</split>
							</split>
						</split>
						<split pos="right">
							<output> -0.7749260067939758 </output>
						</split>
					</split>
					<split pos="right">
						<output> 0.38058680295944214 </output>
					</split>
				</split>
				<split pos="right">
					<feature> 10 </feature>
					<threshold> 0.0 </threshold>
					<split pos="left">
						<feature> 3 </feature>
						<threshold> 536.0 </threshold>
						<split pos="left">
							<output> 0.17622190713882446 </output>
						</split>
						<split pos="right">
							<output> -0.4933282136917114 </output>
						</split>
					</split>
					<split pos="right">
						<output> 0.47350576519966125 </output>
					</split>
				</split>
			</split>
			<split pos="right">
				<output> 0.24818338453769684 </output>
			</split>
		</split>
	</tree>
	<tree id="34" weight="0.1">
		<split>
			<feature> 5 </feature>
			<threshold> 3.0 </threshold>
			<split pos="left">
				<feature> 7 </feature>
				<threshold> 803.52344 </threshold>
				<split pos="left">
					<output> -0.3397485613822937 </output>
				</split>
				<split pos="right">
					<feature> 1 </feature>
					<threshold> 573.0 </threshold>
					<split pos="left">
						<feature> 1 </feature>
						<threshold> 313.0 </threshold>
						<split pos="left">
							<output> 0.34590598940849304 </output>
						</split>
						<split pos="right">
							<feature> 5 </feature>
							<threshold> 1.0 </threshold>
							<split pos="left">
								<feature> 5 </feature>
								<threshold> 0.0 </threshold>
								<split pos="left">
									<feature> 2 </feature>
									<threshold> 46.0 </threshold>
									<split pos="left">
										<output> 0.9411400556564331 </output>
									</split>
									<split pos="right">
										<output> 0.24662594497203827 </output>
									</split>
								</split>
								<split pos="right">
									<output> 0.7260677218437195 </output>
								</split>
							</split>
							<split pos="right">
								<output> -1.23444402217865 </output>
							</split>
						</split>
					</split>
					<split pos="right">
						<feature> 5 </feature>
						<threshold> 1.0 </threshold>
						<split pos="left">
							<output> -0.02029690518975258 </output>
						</split>
						<split pos="right">
							<output> -0.4333556294441223 </output>
						</split>
					</split>
				</split>
			</split>
			<split pos="right">
				<feature> 4 </feature>
				<threshold> 668.0 </threshold>
				<split pos="left">
					<output> 0.2172222137451172 </output>
				</split>
				<split pos="right">
					<output> 0.2269318699836731 </output>
				</split>
			</split>
		</split>
	</tree>
	<tree id="35" weight="0.1">
		<split>
			<feature> 5 </feature>
			<threshold> 6.0 </threshold>
			<split pos="left">
				<feature> 2 </feature>
				<threshold> 104.0 </threshold>
				<split pos="left">
					<feature> 3 </feature>
					<threshold> 232.0 </threshold>
					<split pos="left">
						<feature> 5 </feature>
						<threshold> 0.0 </threshold>
						<split pos="left">
							<output> -0.4911065399646759 </output>
						</split>
						<split pos="right">
							<feature> 3 </feature>
							<threshold> 171.0 </threshold>
							<split pos="left">
								<feature> 7 </feature>
								<threshold> 5217.4023 </threshold>
								<split pos="left">
									<feature> 1 </feature>
									<threshold> 1086.0 </threshold>
									<split pos="left">
										<output> 0.12613798677921295 </output>
									</split>
									<split pos="right">
										<output> 0.22043631970882416 </output>
									</split>
								</split>
								<split pos="right">
									<output> 0.6142323017120361 </output>
								</split>
							</split>
							<split pos="right">
								<output> -0.4271467924118042 </output>
							</split>
						</split>
					</split>
					<split pos="right">
						<feature> 5 </feature>
						<threshold> 1.0 </threshold>
						<split pos="left">
							<feature> 5 </feature>
							<threshold> 0.0 </threshold>
							<split pos="left">
								<output> 0.25754907727241516 </output>
							</split>
							<split pos="right">
								<output> 0.7587310075759888 </output>
							</split>
						</split>
						<split pos="right">
							<output> -0.4980148673057556 </output>
						</split>
					</split>
				</split>
				<split pos="right">
					<output> -0.2385239452123642 </output>
				</split>
			</split>
			<split pos="right">
				<output> 0.2359871119260788 </output>
			</split>
		</split>
	</tree>
	<tree id="36" weight="0.1">
		<split>
			<feature> 5 </feature>
			<threshold> 4.0 </threshold>
			<split pos="left">
				<feature> 7 </feature>
				<threshold> 8026.2344 </threshold>
				<split pos="left">
					<feature> 7 </feature>
					<threshold> 7624.9727 </threshold>
					<split pos="left">
						<feature> 2 </feature>
						<threshold> 430.0 </threshold>
						<split pos="left">
							<feature> 5 </feature>
							<threshold> 0.0 </threshold>
							<split pos="left">
								<output> -0.4197999835014343 </output>
							</split>
							<split pos="right">
								<feature> 3 </feature>
								<threshold> 733.0 </threshold>
								<split pos="left">
									<feature> 4 </feature>
									<threshold> 126.0 </threshold>
									<split pos="left">
										<output> 0.1630689799785614 </output>
									</split>
									<split pos="right">
										<feature> 5 </feature>
										<threshold> 1.0 </threshold>
										<split pos="left">
											<output> 0.2090517282485962 </output>
										</split>
										<split pos="right">
											<output> -0.33981621265411377 </output>
										</split>
									</split>
								</split>
								<split pos="right">
									<output> 0.3264444172382355 </output>
								</split>
							</split>
						</split>
						<split pos="right">
							<output> 0.3337027132511139 </output>
						</split>
					</split>
					<split pos="right">
						<output> -1.1536405086517334 </output>
					</split>
				</split>
				<split pos="right">
					<output> 0.1956498920917511 </output>
				</split>
			</split>
			<split pos="right">
				<feature> 4 </feature>
				<threshold> 668.0 </threshold>
				<split pos="left">
					<output> 0.18123997747898102 </output>
				</split>
				<split pos="right">
					<output> 0.23239052295684814 </output>
				</split>
			</split>
		</split>
	</tree>
	<tree id="37" weight="0.1">
		<split>
			<feature> 5 </feature>
			<threshold> 8.0 </threshold>
			<split pos="left">
				<feature> 3 </feature>
				<threshold> 307.0 </threshold>
				<split pos="left">
					<feature> 3 </feature>
					<threshold> 280.0 </threshold>
					<split pos="left">
						<feature> 5 </feature>
						<threshold> 2.0 </threshold>
						<split pos="left">
							<feature> 7 </feature>
							<threshold> 6421.1875 </threshold>
							<split pos="left">
								<feature> 1 </feature>
								<threshold> 573.0 </threshold>
								<split pos="left">
									<feature> 1 </feature>
									<threshold> 445.0 </threshold>
									<split pos="left">
										<output> -0.3115687966346741 </output>
									</split>
									<split pos="right">
										<output> 0.3788897395133972 </output>
									</split>
								</split>
								<split pos="right">
									<output> -0.24415749311447144 </output>
								</split>
							</split>
							<split pos="right">
								<output> 0.29351693391799927 </output>
							</split>
						</split>
						<split pos="right">
							<feature> 4 </feature>
							<threshold> 935.0 </threshold>
							<split pos="left">
								<feature> 1 </feature>
								<threshold> 276.0 </threshold>
								<split pos="left">
									<output> 0.7264471650123596 </output>
								</split>
								<split pos="right">
									<output> -0.28382617235183716 </output>
								</split>
							</split>
							<split pos="right">
								<output> 0.2586842179298401 </output>
							</split>
						</split>
					</split>
					<split pos="right">
						<output> 0.5156756043434143 </output>
					</split>
				</split>
				<split pos="right">
					<output> -0.39389270544052124 </output>
				</split>
			</split>
			<split pos="right">
				<output> 0.23869429528713226 </output>
			</split>
		</split>
	</tree>
	<tree id="38" weight="0.1">
		<split>
			<feature> 5 </feature>
			<threshold> 4.0 </threshold>
			<split pos="left">
				<feature> 3 </feature>
				<threshold> 307.0 </threshold>
				<split pos="left">
					<feature> 3 </feature>
					<threshold> 280.0 </threshold>
					<split pos="left">
						<feature> 2 </feature>
						<threshold> 374.0 </threshold>
						<split pos="left">
							<feature> 7 </feature>
							<threshold> 1204.7852 </threshold>
							<split pos="left">
								<feature> 2 </feature>
								<threshold> 146.0 </threshold>
								<split pos="left">
									<output> -0.21296514570713043 </output>
								</split>
								<split pos="right">
									<output> -1.1972322463989258 </output>
								</split>
							</split>
							<split pos="right">
								<feature> 1 </feature>
								<threshold> 573.0 </threshold>
								<split pos="left">
									<feature> 3 </feature>
									<threshold> 201.0 </threshold>
									<split pos="left">
										<output> 0.3321647346019745 </output>
									</split>
									<split pos="right">
										<output> 0.1848890483379364 </output>
									</split>
								</split>
								<split pos="right">
									<output> -0.1579439342021942 </output>
								</split>
							</split>
						</split>
						<split pos="right">
							<output> 0.26673424243927 </output>
						</split>
					</split>
					<split pos="right">
						<output> 0.4441257417201996 </output>
					</split>
				</split>
				<split pos="right">
					<output> -0.29559099674224854 </output>
				</split>
			</split>
			<split pos="right">
				<feature> 4 </feature>
				<threshold> 668.0 </threshold>
				<split pos="left">
					<output> 0.15726684033870697 </output>
				</split>
				<split pos="right">
					<output> 0.19532309472560883 </output>
				</split>
			</split>
		</split>
	</tree>
	<tree id="39" weight="0.1">
		<split>
			<feature> 5 </feature>
			<threshold> 8.0 </threshold>
			<split pos="left">
				<feature> 3 </feature>
				<threshold> 307.0 </threshold>
				<split pos="left">
					<feature> 3 </feature>
					<threshold> 280.0 </threshold>
					<split pos="left">
						<feature> 5 </feature>
						<threshold> 2.0 </threshold>
						<split pos="left">
							<feature> 7 </feature>
							<threshold> 6421.1875 </threshold>
							<split pos="left">
								<feature> 3 </feature>
								<threshold> 220.0 </threshold>
								<split pos="left">
									<feature> 2 </feature>
									<threshold> 11.0 </threshold>
									<split pos="left">
										<output> -0.45732927322387695 </output>
									</split>
									<split pos="right">
										<feature> 1 </feature>
										<threshold> 573.0 </threshold>
										<split pos="left">
											<output> 0.0776587575674057 </output>
										</split>
										<split pos="right">
											<output> -0.18087609112262726 </output>
										</split>
									</split>
								</split>
								<split pos="right">
									<output> -1.144120693206787 </output>
								</split>
							</split>
							<split pos="right">
								<output> 0.20488175749778748 </output>
							</split>
						</split>
						<split pos="right">
							<feature> 4 </feature>
							<threshold> 935.0 </threshold>
							<split pos="left">
								<output> 0.12939488887786865 </output>
							</split>
							<split pos="right">
								<output> 0.20823989808559418 </output>
							</split>
						</split>
					</split>
					<split pos="right">
						<output> 0.3090449273586273 </output>
					</split>
				</split>
				<split pos="right">
					<output> -0.3595113754272461 </output>
				</split>
			</split>
			<split pos="right">
				<output> 0.214830681681633 </output>
			</split>
		</split>
	</tree>
	<tree id="40" weight="0.1">
		<split>
			<feature> 4 </feature>
			<threshold> 100.0 </threshold>
			<split pos="left">
				<feature> 5 </feature>
				<threshold> 1.0 </threshold>
				<split pos="left">
					<output> -0.2693677842617035 </output>
				</split>
				<split pos="right">
					<output> 0.8563449382781982 </output>
				</split>
			</split>
			<split pos="right">
				<feature> 5 </feature>
				<threshold> 1.0 </threshold>
				<split pos="left">
					<feature> 5 </feature>
					<threshold> 0.0 </threshold>
					<split pos="left">
						<output> -0.3418567478656769 </output>
					</split>
					<split pos="right">
						<feature> 4 </feature>
						<threshold> 103.0 </threshold>
						<split pos="left">
							<output> 0.7655543684959412 </output>
						</split>
						<split pos="right">
							<output> 0.32729464769363403 </output>
						</split>
					</split>
				</split>
				<split pos="right">
					<feature> 4 </feature>
					<threshold> 103.0 </threshold>
					<split pos="left">
						<output> -1.4119861125946045 </output>
					</split>
					<split pos="right">
						<feature> 8 </feature>
						<threshold> 5323.914 </threshold>
						<split pos="left">
							<feature> 1 </feature>
							<threshold> 1520.0 </threshold>
							<split pos="left">
								<output> -0.3770580291748047 </output>
							</split>
							<split pos="right">
								<feature> 5 </feature>
								<threshold> 20.0 </threshold>
								<split pos="left">
									<output> 0.0296651478856802 </output>
								</split>
								<split pos="right">
									<output> 0.6024143695831299 </output>
								</split>
							</split>
						</split>
						<split pos="right">
							<output> 0.8435476422309875 </output>
						</split>
					</split>
				</split>
			</split>
		</split>
	</tree>
	<tree id="41" weight="0.1">
		<split>
			<feature> 5 </feature>
			<threshold> 3.0 </threshold>
			<split pos="left">
				<feature> 1 </feature>
				<threshold> 10600.0 </threshold>
				<split pos="left">
					<feature> 7 </feature>
					<threshold> 402.26172 </threshold>
					<split pos="left">
						<output> -0.35849031805992126 </output>
					</split>
					<split pos="right">
						<feature> 5 </feature>
						<threshold> 0.0 </threshold>
						<split pos="left">
							<output> -0.02765977941453457 </output>
						</split>
						<split pos="right">
							<feature> 3 </feature>
							<threshold> 849.0 </threshold>
							<split pos="left">
								<feature> 4 </feature>
								<threshold> 126.0 </threshold>
								<split pos="left">
									<output> 0.49488702416419983 </output>
								</split>
								<split pos="right">
									<output> -0.0762808546423912 </output>
								</split>
							</split>
							<split pos="right">
								<output> 0.5714794993400574 </output>
							</split>
						</split>
					</split>
				</split>
				<split pos="right">
					<output> -1.245256781578064 </output>
				</split>
			</split>
			<split pos="right">
				<feature> 4 </feature>
				<threshold> 1743.0 </threshold>
				<split pos="left">
					<feature> 1 </feature>
					<threshold> 4657.0 </threshold>
					<split pos="left">
						<feature> 4 </feature>
						<threshold> 935.0 </threshold>
						<split pos="left">
							<output> 0.1711176037788391 </output>
						</split>
						<split pos="right">
							<output> 0.2930322289466858 </output>
						</split>
					</split>
					<split pos="right">
						<output> -0.5185595750808716 </output>
					</split>
				</split>
				<split pos="right">
					<output> 0.25147393345832825 </output>
				</split>
			</split>
		</split>
	</tree>
	<tree id="42" weight="0.1">
		<split>
			<feature> 5 </feature>
			<threshold> 4.0 </threshold>
			<split pos="left">
				<feature> 3 </feature>
				<threshold> 301.0 </threshold>
				<split pos="left">
					<feature> 3 </feature>
					<threshold> 280.0 </threshold>
					<split pos="left">
						<feature> 7 </feature>
						<threshold> 3211.0938 </threshold>
						<split pos="left">
							<feature> 2 </feature>
							<threshold> 374.0 </threshold>
							<split pos="left">
								<feature> 5 </feature>
								<threshold> 3.0 </threshold>
								<split pos="left">
									<feature> 3 </feature>
									<threshold> 246.0 </threshold>
									<split pos="left">
										<feature> 3 </feature>
										<threshold> 1.0 </threshold>
										<split pos="left">
											<output> -0.41155046224594116 </output>
										</split>
										<split pos="right">
											<output> -0.04609333723783493 </output>
										</split>
									</split>
									<split pos="right">
										<output> -1.7189198732376099 </output>
									</split>
								</split>
								<split pos="right">
									<output> 0.2472417801618576 </output>
								</split>
							</split>
							<split pos="right">
								<output> 0.16173289716243744 </output>
							</split>
						</split>
						<split pos="right">
							<output> 0.12013498693704605 </output>
						</split>
					</split>
					<split pos="right">
						<output> 0.5752573013305664 </output>
					</split>
				</split>
				<split pos="right">
					<output> -0.2501303255558014 </output>
				</split>
			</split>
			<split pos="right">
				<feature> 4 </feature>
				<threshold> 1612.0 </threshold>
				<split pos="left">
					<output> 0.11376006156206131 </output>
				</split>
				<split pos="right">
					<output> 0.29440850019454956 </output>
				</split>
			</split>
		</split>
	</tree>
	<tree id="43" weight="0.1">
		<split>
			<feature> 5 </feature>
			<threshold> 8.0 </threshold>
			<split pos="left">
				<feature> 4 </feature>
				<threshold> 126.0 </threshold>
				<split pos="left">
					<feature> 7 </feature>
					<threshold> 1204.7852 </threshold>
					<split pos="left">
						<output> -0.11961662024259567 </output>
					</split>
					<split pos="right">
						<output> 0.46903786063194275 </output>
					</split>
				</split>
				<split pos="right">
					<feature> 5 </feature>
					<threshold> 1.0 </threshold>
					<split pos="left">
						<feature> 5 </feature>
						<threshold> 0.0 </threshold>
						<split pos="left">
							<output> -0.26601114869117737 </output>
						</split>
						<split pos="right">
							<output> 0.24160897731781006 </output>
						</split>
					</split>
					<split pos="right">
						<feature> 8 </feature>
						<threshold> 5323.914 </threshold>
						<split pos="left">
							<feature> 4 </feature>
							<threshold> 415.0 </threshold>
							<split pos="left">
								<output> -0.5648896098136902 </output>
							</split>
							<split pos="right">
								<feature> 5 </feature>
								<threshold> 2.0 </threshold>
								<split pos="left">
									<output> -0.7858544588088989 </output>
								</split>
								<split pos="right">
									<feature> 4 </feature>
									<threshold> 457.0 </threshold>
									<split pos="left">
										<output> 0.44855087995529175 </output>
									</split>
									<split pos="right">
										<output> 0.11830054968595505 </output>
									</split>
								</split>
							</split>
						</split>
						<split pos="right">
							<output> 0.8588377237319946 </output>
						</split>
					</split>
				</split>
			</split>
			<split pos="right">
				<output> 0.18215081095695496 </output>
			</split>
		</split>
	</tree>
	<tree id="44" weight="0.1">
		<split>
			<feature> 5 </feature>
			<threshold> 2.0 </threshold>
			<split pos="left">
				<feature> 3 </feature>
				<threshold> 894.0 </threshold>
				<split pos="left">
					<feature> 3 </feature>
					<threshold> 301.0 </threshold>
					<split pos="left">
						<feature> 3 </feature>
						<threshold> 280.0 </threshold>
						<split pos="left">
							<feature> 1 </feature>
							<threshold> 9.0 </threshold>
							<split pos="left">
								<output> -0.39728549122810364 </output>
							</split>
							<split pos="right">
								<feature> 1 </feature>
								<threshold> 573.0 </threshold>
								<split pos="left">
									<feature> 5 </feature>
									<threshold> 0.0 </threshold>
									<split pos="left">
										<output> -0.10869023948907852 </output>
									</split>
									<split pos="right">
										<output> 0.25969335436820984 </output>
									</split>
								</split>
								<split pos="right">
									<output> -0.19326236844062805 </output>
								</split>
							</split>
						</split>
						<split pos="right">
							<output> 0.5099967122077942 </output>
						</split>
					</split>
					<split pos="right">
						<output> -0.4649927020072937 </output>
					</split>
				</split>
				<split pos="right">
					<output> 0.31296029686927795 </output>
				</split>
			</split>
			<split pos="right">
				<feature> 4 </feature>
				<threshold> 1612.0 </threshold>
				<split pos="left">
					<feature> 4 </feature>
					<threshold> 176.0 </threshold>
					<split pos="left">
						<output> 0.3512473702430725 </output>
					</split>
					<split pos="right">
						<output> -0.13131727278232574 </output>
					</split>
				</split>
				<split pos="right">
					<output> 0.22996199131011963 </output>
				</split>
			</split>
		</split>
	</tree>
	<tree id="45" weight="0.1">
		<split>
			<feature> 5 </feature>
			<threshold> 2.0 </threshold>
			<split pos="left">
				<feature> 4 </feature>
				<threshold> 1861.0 </threshold>
				<split pos="left">
					<feature> 3 </feature>
					<threshold> 849.0 </threshold>
					<split pos="left">
						<feature> 3 </feature>
						<threshold> 536.0 </threshold>
						<split pos="left">
							<feature> 3 </feature>
							<threshold> 280.0 </threshold>
							<split pos="left">
								<feature> 7 </feature>
								<threshold> 6421.1875 </threshold>
								<split pos="left">
									<output> -0.1726149469614029 </output>
								</split>
								<split pos="right">
									<output> 0.12610697746276855 </output>
								</split>
							</split>
							<split pos="right">
								<output> 0.20461875200271606 </output>
							</split>
						</split>
						<split pos="right">
							<output> -0.34316664934158325 </output>
						</split>
					</split>
					<split pos="right">
						<output> 0.23519474267959595 </output>
					</split>
				</split>
				<split pos="right">
					<output> -1.250955581665039 </output>
				</split>
			</split>
			<split pos="right">
				<feature> 4 </feature>
				<threshold> 1612.0 </threshold>
				<split pos="left">
					<feature> 4 </feature>
					<threshold> 97.0 </threshold>
					<split pos="left">
						<output> 0.5354368090629578 </output>
					</split>
					<split pos="right">
						<feature> 12 </feature>
						<threshold> 0.0 </threshold>
						<split pos="left">
							<output> -0.017123600468039513 </output>
						</split>
						<split pos="right">
							<output> -0.7504454851150513 </output>
						</split>
					</split>
				</split>
				<split pos="right">
					<output> 0.2037975937128067 </output>
				</split>
			</split>
		</split>
	</tree>
	<tree id="46" weight="0.1">
		<split>
			<feature> 5 </feature>
			<threshold> 4.0 </threshold>
			<split pos="left">
				<feature> 4 </feature>
				<threshold> 126.0 </threshold>
				<split pos="left">
					<feature> 7 </feature>
					<threshold> 4816.1406 </threshold>
					<split pos="left">
						<feature> 3 </feature>
						<threshold> 262.0 </threshold>
						<split pos="left">
							<output> -0.15251384675502777 </output>
						</split>
						<split pos="right">
							<output> 0.3148418962955475 </output>
						</split>
					</split>
					<split pos="right">
						<output> 0.43527621030807495 </output>
					</split>
				</split>
				<split pos="right">
					<feature> 5 </feature>
					<threshold> 1.0 </threshold>
					<split pos="left">
						<feature> 5 </feature>
						<threshold> 0.0 </threshold>
						<split pos="left">
							<output> -0.22118926048278809 </output>
						</split>
						<split pos="right">
							<output> 0.20759092271327972 </output>
						</split>
					</split>
					<split pos="right">
						<output> -0.2326909750699997 </output>
					</split>
				</split>
			</split>
			<split pos="right">
				<feature> 4 </feature>
				<threshold> 668.0 </threshold>
				<split pos="left">
					<output> 0.0857420563697815 </output>
				</split>
				<split pos="right">
					<feature> 1 </feature>
					<threshold> 2457.0 </threshold>
					<split pos="left">
						<output> 0.47526976466178894 </output>
					</split>
					<split pos="right">
						<feature> 5 </feature>
						<threshold> 20.0 </threshold>
						<split pos="left">
							<output> 0.0405452623963356 </output>
						</split>
						<split pos="right">
							<output> 0.6030303835868835 </output>
						</split>
					</split>
				</split>
			</split>
		</split>
	</tree>
	<tree id="47" weight="0.1">
		<split>
			<feature> 5 </feature>
			<threshold> 2.0 </threshold>
			<split pos="left">
				<feature> 13 </feature>
				<threshold> 0.0 </threshold>
				<split pos="left">
					<feature> 3 </feature>
					<threshold> 167.0 </threshold>
					<split pos="left">
						<feature> 7 </feature>
						<threshold> 6019.926 </threshold>
						<split pos="left">
							<output> -0.2135787457227707 </output>
						</split>
						<split pos="right">
							<output> 0.32980620861053467 </output>
						</split>
					</split>
					<split pos="right">
						<output> -0.21190789341926575 </output>
					</split>
				</split>
				<split pos="right">
					<output> 0.19343715906143188 </output>
				</split>
			</split>
			<split pos="right">
				<feature> 4 </feature>
				<threshold> 615.0 </threshold>
				<split pos="left">
					<feature> 2 </feature>
					<threshold> 78.0 </threshold>
					<split pos="left">
						<output> 0.2165992707014084 </output>
					</split>
					<split pos="right">
						<output> -0.4293062388896942 </output>
					</split>
				</split>
				<split pos="right">
					<feature> 5 </feature>
					<threshold> 17.0 </threshold>
					<split pos="left">
						<feature> 8 </feature>
						<threshold> 483.9922 </threshold>
						<split pos="left">
							<feature> 5 </feature>
							<threshold> 13.0 </threshold>
							<split pos="left">
								<output> -0.04471827298402786 </output>
							</split>
							<split pos="right">
								<output> 0.25213509798049927 </output>
							</split>
						</split>
						<split pos="right">
							<output> 0.5637372136116028 </output>
						</split>
					</split>
					<split pos="right">
						<output> 0.48702481389045715 </output>
					</split>
				</split>
			</split>
		</split>
	</tree>
	<tree id="48" weight="0.1">
		<split>
			<feature> 7 </feature>
			<threshold> 84667.41 </threshold>
			<split pos="left">
				<feature> 5 </feature>
				<threshold> 8.0 </threshold>
				<split pos="left">
					<feature> 3 </feature>
					<threshold> 307.0 </threshold>
					<split pos="left">
						<feature> 4 </feature>
						<threshold> 935.0 </threshold>
						<split pos="left">
							<feature> 4 </feature>
							<threshold> 126.0 </threshold>
							<split pos="left">
								<feature> 4 </feature>
								<threshold> 116.0 </threshold>
								<split pos="left">
									<feature> 7 </feature>
									<threshold> 4414.879 </threshold>
									<split pos="left">
										<feature> 4 </feature>
										<threshold> 7.0 </threshold>
										<split pos="left">
											<output> -0.29760095477104187 </output>
										</split>
										<split pos="right">
											<output> 0.1884654015302658 </output>
										</split>
									</split>
									<split pos="right">
										<output> 0.4508688151836395 </output>
									</split>
								</split>
								<split pos="right">
									<output> 0.4959714412689209 </output>
								</split>
							</split>
							<split pos="right">
								<feature> 5 </feature>
								<threshold> 1.0 </threshold>
								<split pos="left">
									<output> -0.005982103757560253 </output>
								</split>
								<split pos="right">
									<output> -0.23113496601581573 </output>
								</split>
							</split>
						</split>
						<split pos="right">
							<output> 0.15156133472919464 </output>
						</split>
					</split>
					<split pos="right">
						<output> -0.2605787217617035 </output>
					</split>
				</split>
				<split pos="right">
					<output> 0.14999110996723175 </output>
				</split>
			</split>
			<split pos="right">
				<output> 0.9052354693412781 </output>
			</split>
		</split>
	</tree>
	<tree id="49" weight="0.1">
		<split>
			<feature> 5 </feature>
			<threshold> 3.0 </threshold>
			<split pos="left">
				<feature> 7 </feature>
				<threshold> 84667.41 </threshold>
				<split pos="left">
					<feature> 13 </feature>
					<threshold> 0.0 </threshold>
					<split pos="left">
						<feature> 4 </feature>
						<threshold> 103.0 </threshold>
						<split pos="left">
							<output> -0.15263810753822327 </output>
						</split>
						<split pos="right">
							<feature> 5 </feature>
							<threshold> 1.0 </threshold>
							<split pos="left">
								<feature> 5 </feature>
								<threshold> 0.0 </threshold>
								<split pos="left">
									<output> -0.2290339469909668 </output>
								</split>
								<split pos="right">
									<output> 0.16903935372829437 </output>
								</split>
							</split>
							<split pos="right">
								<output> -0.29747241735458374 </output>
							</split>
						</split>
					</split>
					<split pos="right">
						<output> 0.151953786611557 </output>
					</split>
				</split>
				<split pos="right">
					<output> 0.6468044519424438 </output>
				</split>
			</split>
			<split pos="right">
				<feature> 1 </feature>
				<threshold> 1469.0 </threshold>
				<split pos="left">
					<output> 0.09782858937978745 </output>
				</split>
				<split pos="right">
					<feature> 5 </feature>
					<threshold> 20.0 </threshold>
					<split pos="left">
						<feature> 1 </feature>
						<threshold> 2554.0 </threshold>
						<split pos="left">
							<output> 0.2925623655319214 </output>
						</split>
						<split pos="right">
							<output> -0.007153588347136974 </output>
						</split>
					</split>
					<split pos="right">
						<output> 0.5177289247512817 </output>
					</split>
				</split>
			</split>
		</split>
	</tree>
	<tree id="50" weight="0.1">
		<split>
			<feature> 5 </feature>
			<threshold> 2.0 </threshold>
			<split pos="left">
				<feature> 7 </feature>
				<threshold> 84667.41 </threshold>
				<split pos="left">
					<feature> 3 </feature>
					<threshold> 894.0 </threshold>
					<split pos="left">
						<feature> 3 </feature>
						<threshold> 307.0 </threshold>
						<split pos="left">
							<feature> 7 </feature>
							<threshold> 6421.1875 </threshold>
							<split pos="left">
								<output> -0.15436486899852753 </output>
							</split>
							<split pos="right">
								<output> 0.11884599179029465 </output>
							</split>
						</split>
						<split pos="right">
							<output> -0.39115217328071594 </output>
						</split>
					</split>
					<split pos="right">
						<output> 0.21258698403835297 </output>
					</split>
				</split>
				<split pos="right">
					<output> 0.6181003451347351 </output>
				</split>
			</split>
			<split pos="right">
				<feature> 1 </feature>
				<threshold> 1259.0 </threshold>
				<split pos="left">
					<output> 0.09102083742618561 </output>
				</split>
				<split pos="right">
					<feature> 5 </feature>
					<threshold> 20.0 </threshold>
					<split pos="left">
						<feature> 8 </feature>
						<threshold> 1935.9688 </threshold>
						<split pos="left">
							<feature> 2 </feature>
							<threshold> 70.0 </threshold>
							<split pos="left">
								<output> 0.3196389377117157 </output>
							</split>
							<split pos="right">
								<output> 0.014294317923486233 </output>
							</split>
						</split>
						<split pos="right">
							<output> 0.6726408004760742 </output>
						</split>
					</split>
					<split pos="right">
						<output> 0.4686235189437866 </output>
					</split>
				</split>
			</split>
		</split>
	</tree>
	<tree id="51" weight="0.1">
		<split>
			<feature> 7 </feature>
			<threshold> 84667.41 </threshold>
			<split pos="left">
				<feature> 5 </feature>
				<threshold> 2.0 </threshold>
				<split pos="left">
					<feature> 13 </feature>
					<threshold> 0.0 </threshold>
					<split pos="left">
						<feature> 4 </feature>
						<threshold> 103.0 </threshold>
						<split pos="left">
							<output> -0.14545410871505737 </output>
						</split>
						<split pos="right">
							<feature> 5 </feature>
							<threshold> 1.0 </threshold>
							<split pos="left">
								<output> -0.0028276415541768074 </output>
							</split>
							<split pos="right">
								<output> -0.6892714500427246 </output>
							</split>
						</split>
					</split>
					<split pos="right">
						<output> 0.14152228832244873 </output>
					</split>
				</split>
				<split pos="right">
					<feature> 1 </feature>
					<threshold> 1259.0 </threshold>
					<split pos="left">
						<output> 0.08036059141159058 </output>
					</split>
					<split pos="right">
						<feature> 8 </feature>
						<threshold> 483.9922 </threshold>
						<split pos="left">
							<feature> 1 </feature>
							<threshold> 8836.0 </threshold>
							<split pos="left">
								<feature> 5 </feature>
								<threshold> 13.0 </threshold>
								<split pos="left">
									<output> 0.05572088062763214 </output>
								</split>
								<split pos="right">
									<output> 0.32520464062690735 </output>
								</split>
							</split>
							<split pos="right">
								<output> -0.20338718593120575 </output>
							</split>
						</split>
						<split pos="right">
							<output> 0.4807772636413574 </output>
						</split>
					</split>
				</split>
			</split>
			<split pos="right">
				<output> 0.7421220541000366 </output>
			</split>
		</split>
	</tree>
	<tree id="52" weight="0.1">
		<split>
			<feature> 7 </feature>
			<threshold> 84667.41 </threshold>
			<split pos="left">
				<feature> 1 </feature>
				<threshold> 7.0 </threshold>
				<split pos="left">
					<output> -0.25834283232688904 </output>
				</split>
				<split pos="right">
					<feature> 5 </feature>
					<threshold> 13.0 </threshold>
					<split pos="left">
						<feature> 4 </feature>
						<threshold> 126.0 </threshold>
						<split pos="left">
							<output> 0.24945244193077087 </output>
						</split>
						<split pos="right">
							<feature> 5 </feature>
							<threshold> 1.0 </threshold>
							<split pos="left">
								<output> 0.01963859610259533 </output>
							</split>
							<split pos="right">
								<feature> 8 </feature>
								<threshold> 5323.914 </threshold>
								<split pos="left">
									<feature> 8 </feature>
									<threshold> 483.9922 </threshold>
									<split pos="left">
										<feature> 11 </feature>
										<threshold> 0.0 </threshold>
										<split pos="left">
											<feature> 1 </feature>
											<threshold> 275.0 </threshold>
											<split pos="left">
												<output> -0.04815012961626053 </output>
											</split>
											<split pos="right">
												<output> -0.21298286318778992 </output>
											</split>
										</split>
										<split pos="right">
											<output> 0.13151800632476807 </output>
										</split>
									</split>
									<split pos="right">
										<output> 0.3308984041213989 </output>
									</split>
								</split>
								<split pos="right">
									<output> 0.8479062914848328 </output>
								</split>
							</split>
						</split>
					</split>
					<split pos="right">
						<output> 0.2233985960483551 </output>
					</split>
				</split>
			</split>
			<split pos="right">
				<output> 0.693902850151062 </output>
			</split>
		</split>
	</tree>
	<tree id="53" weight="0.1">
		<split>
			<feature> 7 </feature>
			<threshold> 84667.41 </threshold>
			<split pos="left">
				<feature> 5 </feature>
				<threshold> 4.0 </threshold>
				<split pos="left">
					<feature> 3 </feature>
					<threshold> 106.0 </threshold>
					<split pos="left">
						<feature> 7 </feature>
						<threshold> 3211.0938 </threshold>
						<split pos="left">
							<feature> 2 </feature>
							<threshold> 364.0 </threshold>
							<split pos="left">
								<output> -0.12192627042531967 </output>
							</split>
							<split pos="right">
								<output> 0.23522253334522247 </output>
							</split>
						</split>
						<split pos="right">
							<output> 0.24704119563102722 </output>
						</split>
					</split>
					<split pos="right">
						<feature> 5 </feature>
						<threshold> 3.0 </threshold>
						<split pos="left">
							<feature> 8 </feature>
							<threshold> 5807.9062 </threshold>
							<split pos="left">
								<output> -0.10952837765216827 </output>
							</split>
							<split pos="right">
								<output> 0.7491376996040344 </output>
							</split>
						</split>
						<split pos="right">
							<output> -0.6031816601753235 </output>
						</split>
					</split>
				</split>
				<split pos="right">
					<feature> 4 </feature>
					<threshold> 1612.0 </threshold>
					<split pos="left">
						<feature> 7 </feature>
						<threshold> 10032.543 </threshold>
						<split pos="left">
							<output> 0.040143437683582306 </output>
						</split>
						<split pos="right">
							<output> 0.5446949601173401 </output>
						</split>
					</split>
					<split pos="right">
						<output> 0.16758009791374207 </output>
					</split>
				</split>
			</split>
			<split pos="right">
				<output> 0.63937908411026 </output>
			</split>
		</split>
	</tree>
	<tree id="54" weight="0.1">
		<split>
			<feature> 7 </feature>
			<threshold> 84667.41 </threshold>
			<split pos="left">
				<feature> 5 </feature>
				<threshold> 2.0 </threshold>
				<split pos="left">
					<feature> 3 </feature>
					<threshold> 894.0 </threshold>
					<split pos="left">
						<feature> 3 </feature>
						<threshold> 167.0 </threshold>
						<split pos="left">
							<feature> 7 </feature>
							<threshold> 8026.2344 </threshold>
							<split pos="left">
								<feature> 7 </feature>
								<threshold> 6822.449 </threshold>
								<split pos="left">
									<output> -0.11857467144727707 </output>
								</split>
								<split pos="right">
									<output> -1.002732753753662 </output>
								</split>
							</split>
							<split pos="right">
								<output> 0.3510183095932007 </output>
							</split>
						</split>
						<split pos="right">
							<output> -0.18861691653728485 </output>
						</split>
					</split>
					<split pos="right">
						<output> 0.2628580629825592 </output>
					</split>
				</split>
				<split pos="right">
					<feature> 2 </feature>
					<threshold> 226.0 </threshold>
					<split pos="left">
						<feature> 4 </feature>
						<threshold> 97.0 </threshold>
						<split pos="left">
							<output> 0.395974725484848 </output>
						</split>
						<split pos="right">
							<feature> 3 </feature>
							<threshold> 187.0 </threshold>
							<split pos="left">
								<output> -0.20333530008792877 </output>
							</split>
							<split pos="right">
								<output> 0.11497767269611359 </output>
							</split>
						</split>
					</split>
					<split pos="right">
						<output> 0.13539375364780426 </output>
					</split>
				</split>
			</split>
			<split pos="right">
				<output> 0.5941665172576904 </output>
			</split>
		</split>
	</tree>
	<tree id="55" weight="0.1">
		<split>
			<feature> 7 </feature>
			<threshold> 84667.41 </threshold>
			<split pos="left">
				<feature> 5 </feature>
				<threshold> 4.0 </threshold>
				<split pos="left">
					<feature> 4 </feature>
					<threshold> 126.0 </threshold>
					<split pos="left">
						<feature> 4 </feature>
						<threshold> 116.0 </threshold>
						<split pos="left">
							<feature> 2 </feature>
							<threshold> 42.0 </threshold>
							<split pos="left">
								<output> -0.12173549085855484 </output>
							</split>
							<split pos="right">
								<output> 0.23905342817306519 </output>
							</split>
						</split>
						<split pos="right">
							<output> 0.3790419399738312 </output>
						</split>
					</split>
					<split pos="right">
						<feature> 5 </feature>
						<threshold> 1.0 </threshold>
						<split pos="left">
							<feature> 7 </feature>
							<threshold> 20866.61 </threshold>
							<split pos="left">
								<output> -0.05039028450846672 </output>
							</split>
							<split pos="right">
								<output> 0.170719712972641 </output>
							</split>
						</split>
						<split pos="right">
